layers 7
layer 0 Dense
5 64
[-5.5965181e-02 -2.8837066e-02  7.6775543e-02 -1.9148704e-01
 -9.5637869e-03  1.0331530e-01 -1.2484111e-02 -1.5623717e-02
 -5.0537594e-02 -5.4767361e-04  3.2479517e-02 -4.0354714e-02
  8.9257129e-02 -5.7489717e-01 -2.2739898e-02  2.0495016e-02
 -4.1527983e-02 -2.4211593e-03 -2.8232034e-02 -5.2813330e-04
  1.5223231e-02  8.0226837e-03  1.0358852e-02 -4.8856357e-01
  1.6418634e-01 -4.0895145e-02  6.6146925e-02 -7.6365757e-01
  1.3526313e-01  2.4163567e-02 -2.2178055e-01 -4.9978512e-04
  3.2601941e-03 -7.2284603e-01 -1.8136828e-01 -3.1977555e-01
  1.6744627e-01  2.8174300e-02  3.2663620e-01  1.4160016e-02
  4.7224525e-02 -2.9928298e-03 -4.9293849e-01  3.6282975e-02
 -1.3390377e-01 -7.3672611e-01  7.0057027e-03 -5.0842319e-02
 -6.9005507e-01 -4.5424649e-03 -3.5148498e-01  6.0091425e-02
 -2.3342231e-02 -2.6106790e-01  2.3575118e-01  7.1765408e-02
  2.3176011e-02 -2.2761764e-02  4.2524572e-02  1.8230172e-02
  2.1308750e-02 -1.5733945e-01  2.9049689e-02 -2.9819228e-02]
[ 3.41083109e-02 -1.66234269e-03 -1.09105237e-01  2.83829551e-02
 -6.75511546e-03 -2.58297175e-01  4.87139821e-03  1.47872120e-02
 -2.41041707e-04  2.02898942e-02 -3.07028174e-01  2.22370523e-04
 -5.11751175e-02 -3.91864516e-02  1.04548689e-02 -8.48513469e-02
 -6.23255083e-03 -1.73727982e-03  1.75935570e-02 -2.06412133e-02
  4.76312311e-03  1.33277839e-02  6.09307410e-03 -2.60135382e-01
 -1.84678901e-02 -4.58942400e-03  9.04554687e-03  1.98795736e-01
 -5.80027938e-01  1.30686285e-02 -5.87016670e-03 -5.86632639e-03
  4.40605031e-03  1.65296514e-02 -3.81900698e-01 -1.00783780e-02
 -1.38743207e-01  4.51373728e-03  1.71463657e-02  9.40337405e-03
  1.48063304e-03 -4.38302197e-03 -8.16915836e-03 -1.92299224e-02
 -5.09167975e-03 -4.54465933e-02  2.82858056e-03 -6.12465978e-01
 -2.50140782e-02  1.84342023e-02 -3.95079842e-04 -2.47333497e-02
  1.30563751e-02  1.42090749e-02  4.85887043e-02  5.47118559e-02
  6.14714809e-03  4.18569427e-03  1.31347566e-03  9.32214782e-03
 -1.89032927e-02  1.15818363e-02  1.24717895e-02  1.57860462e-02]
[-0.48226717  0.13132232  0.16568439  0.28327152  0.3073162  -0.24643993
 -0.36390918 -0.4088261   0.408978   -0.4439717  -0.01882045  0.29612836
 -0.23582913 -0.2748471   0.2384501   0.1527326   0.277513    0.10351921
 -0.42985982  0.04343247  0.07735295 -0.44728783 -0.0266792  -0.01656921
  0.17183574  0.29144228 -0.17059723 -0.0135624  -0.24022722 -0.4724318
  0.21784368 -0.02493432  0.09015216 -0.03410497 -0.06299902 -0.04566615
  0.19504403 -0.3967155   0.19459885  0.19445445 -0.41828635 -0.06167709
  0.06363111  0.14885235 -0.03541536  0.00785308  0.34798232 -0.22519831
  0.03397847  0.12427299  0.17213762 -0.25643152 -0.37649584 -0.33617043
  0.1074125   0.48169023  0.04143466  0.30633256 -0.21395528 -0.44075498
 -0.06951769  0.36139652  0.01305353 -0.42320266]
[-0.11106796 -0.03096924  0.14489917  0.51311404 -0.11220877 -0.11109955
 -0.05427366 -0.1831263   0.20909132 -0.06095003 -0.01539871  0.08786815
 -0.11178253 -0.14872777  0.3456887   0.36269465 -0.11451837  0.02713499
 -0.17207031 -0.0578219   0.00896352 -0.21993533 -0.07248311 -0.03605138
 -0.06777152  0.01390882  0.43321684 -0.025707   -0.18091318 -0.01473
 -0.14068393 -0.12747157  0.02354838 -0.00969948  0.20776333 -0.03307509
 -0.09686158 -0.2087111   0.06339252  0.49041498 -0.23188725 -0.11908155
  0.03338262 -0.2689545   0.512028    0.00108109  0.11912448 -0.19565675
  0.04677979  0.03539283 -0.14548178 -0.26168406 -0.07959156 -0.13341214
  0.0401151  -0.1340648  -0.02246094  0.21626224  0.5778407  -0.23148242
  0.3392394  -0.00673121 -0.04907314 -0.16389047]
[ 0.13045499  0.37047777  0.10488774  0.11982239  0.1955243  -0.03480012
  0.18037787  0.13006748  0.03291424  0.16637576 -0.0037184   0.40148625
 -0.3693669  -0.03253955  0.2193481   0.07950893  0.34956923 -0.3784189
  0.20236722 -0.42939594 -0.4884025   0.02676819 -0.38977855 -0.05369362
  0.27128297  0.3991802   0.02625478  0.00573591 -0.10348223  0.10789599
  0.16856277 -0.4418362  -0.47440207 -0.00720203  0.11570957 -0.01812067
  0.14059308 -0.00813304  0.09312445  0.1046316  -0.1655712  -0.29254237
  0.04343641  0.15530704 -0.06782804  0.00729829  0.2843288   0.05053835
  0.05501615 -0.37692946  0.14092484 -0.03570033  0.18530884  0.12212535
  0.08187755  0.3879958  -0.50482684  0.35715872 -0.0508167   0.00664577
  0.16220611  0.26068732 -0.4682278   0.19434085]
[-0.39839244  0.21439402  0.2131982  -0.62402445  0.10710672  0.08577527
 -0.640115   -0.06476071 -0.4708958  -0.8548919   0.00591997  0.23090503
 -0.03176543 -0.4488171   0.27667534 -0.0479576   0.08215415 -0.4750557
 -0.2028507  -0.35606542 -0.17810346  0.04072963  0.19575761 -0.4027905
 -0.12488604  0.1517537  -0.3492734  -0.33048815 -0.5124576  -1.0911562
 -0.17352436 -0.22538394 -0.2936057  -0.67017835 -0.565802    0.3761581
 -0.15859883  0.23746678 -0.68378973  0.19661832  0.23720996  0.27808625
  0.27255297 -0.20496522 -0.2479454  -0.38899544  0.14786865 -0.7228219
 -0.07342914 -0.39854914 -0.4029199  -0.01326127 -0.5091362  -0.6260217
  0.1621149  -0.6208267  -0.05319578  0.252884   -0.7089619   0.15955728
  0.00571849 -0.01050283  0.07677437 -0.34520403]
layer 1 Activation
relu
layer 2 Dense
64 32
[-0.10764983 -2.574703   -0.21975453 -0.02677857 -0.8656019  -0.09520534
  0.03764305 -0.17874779 -0.09168999 -0.13281354 -0.11967538 -0.07638391
  0.00647114  0.4003175  -0.0698516  -0.668703    1.4584891   0.00845661
  0.13584164 -0.05977273 -0.55061704 -0.11505776  0.09844685  0.06674159
 -0.34526402 -0.21004331  0.29867512 -0.21288206  0.15571716 -0.23293713
 -0.2673663   0.03682122]
[ 0.22107318 -0.28797406  0.27309343  0.07361665  0.06634125  0.00211204
 -0.00874313  0.15218815 -0.495645    0.09933354  0.03470919 -0.00750881
  0.13169819 -0.55628484  0.18266281 -0.7538091  -0.6341387  -0.13479921
 -0.07151807  0.1235035   0.23610978  0.17536739 -0.24972269 -0.266872
  0.09709416  0.00272143 -0.01584373  0.09335416 -0.02820964  0.11688544
  0.41466767  0.17326319]
[ 0.05505351  0.14581104 -0.01515209  0.19481048  0.01957     0.08568286
 -0.20404361  0.01309568  0.16859564  0.12286328  0.2540226   0.09508076
  0.03011975  0.04091506  0.1826853   0.08695342  0.16541752 -0.0306151
 -0.05728681  0.05810392 -0.12022684  0.2860582   0.03956059 -0.30043662
 -0.06493997  0.22411953 -0.110562    0.21366437  0.14821696 -0.22320992
 -0.0428798  -0.18705465]
[-0.15729351  0.32338727 -1.8610544  -0.00485449  0.1024107  -0.02852537
 -0.3999275  -0.924767   -0.4427257  -1.4260236  -0.40626892 -0.2928691
 -0.5473312   0.69425344  0.03767473  0.40296412  0.0572837  -0.03452089
 -1.1756983  -0.29110062  0.2457785   0.0382138  -0.07754578 -0.0648976
 -0.07496567  0.3768208   0.94184285  0.15324892 -0.2549862  -0.30100256
  0.22811055 -0.71520996]
[ 0.2258314   0.04201499 -0.00195537  0.13899377  0.22531334  0.11371963
 -0.29100537  0.11522341 -0.2248589  -0.14472407  0.07990488  0.20631817
  0.18738784 -0.24041265  0.2176116  -0.4410544  -0.1779083  -0.02483795
 -0.04632744 -0.0173022   0.11624871  0.12099988  0.14852947  0.10470212
  0.0590174  -0.02335892 -0.33235106  0.11914887 -0.26583865  0.06769034
 -0.00740775  0.31976005]
[-0.15535145 -0.25565553 -0.03851078 -0.04492336  0.30961365  0.02990586
  0.03432175  0.07700417  0.29260176  0.19208995  0.26315376  0.21822368
 -0.00505999  0.32650456  0.234443    0.21008278 -0.30198076 -0.01209725
  0.11093435  0.15479283 -0.06990718  0.08294273  0.20069735 -0.24689215
 -0.00872565  0.28367233 -0.01825489 -0.31037322 -0.34450862 -0.20477186
 -0.20733409 -0.05160708]
[-0.5447912   0.02935762  0.12768567 -0.3838898   0.0116529  -0.553959
  0.24102907  0.35762894  0.6495878   0.52208984  0.24846925  0.14198177
 -0.3057795  -2.5997818  -0.57587665  1.2942972  -2.6605854  -0.02734665
  0.1546124  -0.37004906  0.03173985 -0.4693324  -0.68615955  0.23534636
 -0.25350085  0.3156314   0.32018945 -0.18593135 -0.3140096  -0.09329025
 -0.56512743 -0.24718374]
[-0.12399869 -1.6179597   0.13488515 -0.16419002 -0.06409698 -0.03910869
  0.214478   -0.01458402  0.15072882  0.09337265  0.03603553 -0.02081735
 -0.12367516  0.5045628  -0.13308099  0.22599272  0.17583446 -0.09614903
  0.20662136  0.08722355 -0.13736777 -0.24224839  0.3370717  -0.21455458
 -0.14891171 -0.00367528  0.12813324 -0.0743214   0.11980867 -0.19281444
 -0.2561078  -0.0649644 ]
[-0.55676347 -0.17074092  0.15139149 -0.15168145 -1.4824915  -0.2658137
 -0.05532477 -1.0086633   0.2612768  -0.84550875 -1.2549577  -0.03622609
 -0.31059107  0.7614682  -0.24947993  0.6858918   0.5645765   0.01382739
 -0.24700306 -0.07372308 -0.049603   -0.46816096 -1.531392    0.38412836
 -0.87066776 -0.03828057  1.7388078  -2.1248446   0.52993554 -0.99846435
 -0.05074355 -2.761418  ]
[-0.8117134  -0.04064146 -0.10153984 -0.9702235   0.01124001 -0.78004193
  0.7218845  -0.13992867  0.32243097  0.54005224  0.5157171  -0.2902617
 -0.8470889  -1.1469791  -0.94309807  1.9251157  -1.957981    0.05989267
  0.26135197 -3.0005927  -0.39977312 -1.0061476   0.80653024  0.24620125
 -0.5559166  -1.02206     0.4080154  -0.6628346   0.27808285 -0.26065505
 -0.17801978 -0.20352776]
[-0.09370141  0.31918582  0.28940842 -0.14510351  0.00587978  0.13592984
  0.10472825  0.11839763  0.08893932 -0.08233429 -0.21830441 -0.02860903
  0.09904882  0.05135515  0.10717326 -0.00350557  0.0273755   0.00702477
 -0.10372664  0.15266758  0.11549618  0.15770489  0.19873857 -0.08610862
  0.14694813  0.090569    0.00793245 -0.07374004 -0.02721929  0.21572162
 -0.08756674  0.01917274]
[ 0.21605587 -0.35752428  0.01966767  0.2755829   0.2074128   0.24794644
 -0.10897627  0.23699808 -0.36519882 -0.07016717 -0.21977188 -0.01131129
  0.2804298  -0.70118594  0.3139569  -0.73996156 -0.0569758  -0.02889485
 -0.07338113 -0.07062773  0.4526376   0.20307937 -0.31981272  0.08864814
  0.20444229 -0.10954783 -0.1045747   0.16982706 -0.11747864  0.1077328
  0.43646115  0.12798505]
[-9.8755471e-02  9.9238507e-02  7.4484874e-04 -7.3204726e-02
  3.4750390e-01  9.3905970e-02  4.7403663e-01  4.9806008e-01
  1.8297966e-01 -5.0419088e-02  1.8332887e-01  8.3685055e-02
  2.0987408e-01  3.0878529e-01 -1.1128334e-01  6.6069603e-01
  3.3946991e-02 -2.5542248e-03 -1.1895581e-01  6.7182280e-02
 -4.1935956e-01 -1.7787753e-01  5.9000712e-02  1.8988471e-01
  1.6274390e-01  2.3502819e-01 -1.3522538e+00  1.5845369e-01
 -7.7803262e-02  3.2598543e-01  1.8270671e-01  4.4929984e-01]
[ 0.0227381   0.22856417  0.40838608  0.18731779 -0.07586512  0.00531408
  0.31728372  0.42590466 -0.7048584   0.4004888  -0.25377372 -0.78714746
 -0.6113812  -0.01416583  0.05221723  0.4305043  -0.2663765  -0.02417693
  0.5083398  -0.02319205 -0.0748863   0.02955659  0.12581164 -0.07836413
  0.12604235 -0.3663261   0.566176    0.11163098  0.45548815  0.06742693
  0.08740579  0.5238262 ]
[ 0.25137946  0.05170719 -0.2032591   0.15256383 -0.08565156  0.30824205
 -0.10552755 -0.05428893 -0.21018116 -0.14064547 -0.31399292 -0.08362986
  0.11265942 -0.40043887  0.34004933 -0.2314668  -0.17018647  0.00083013
  0.01216403 -0.02138148 -0.04963599  0.23693642 -0.30128622  0.00528617
 -0.07591177 -0.05065182 -0.18721367  0.3264766  -0.0547064   0.30776256
  0.15895411  0.17409196]
[ 0.14928372  0.07352131  0.37855726  0.05516045  0.5352308  -0.06211033
 -0.5524423  -0.21178791  0.21911596 -0.06803221 -0.03036772  0.13751712
  0.14627154  0.22995757  0.10287179  0.40468395  0.11035898 -0.04621014
 -0.11779964  0.03460273  0.2456179   0.08620892  0.26637194  0.048457
 -0.09336451  0.37659505 -0.21056324  0.2887132  -0.11241291  0.12082865
 -0.00688279 -0.03983466]
[ 0.23450391 -0.20677647 -0.1227571   0.1360744   0.13270901  0.08733971
  0.06331632  0.25890553 -0.35057458 -0.13774572 -0.051206    0.14195871
  0.19822939 -0.44652084  0.16648835 -0.07297511 -0.01865972 -0.07967205
 -0.06976236 -0.01623026  0.24605238  0.25368026  0.181146   -0.14809419
  0.40620238 -0.01598826 -0.09207235  0.13220882 -0.15120278  0.26871812
  0.22748803  0.09757458]
[-2.9990029e-01  2.3124023e-01  1.7778771e-01 -4.2070809e-01
 -1.5538845e+00 -2.8233257e-01 -3.5122759e+00 -4.9024248e-01
  2.2681074e-01 -3.9264753e-01  1.4056112e+00 -3.9249924e-01
 -9.7366787e-02  8.7336838e-01 -5.4846239e-01  1.0947863e+00
  5.6453985e-01 -4.0904392e-02 -1.6523230e+00  4.4665617e-01
  2.7069994e-03 -2.9737449e-01  4.5647871e-01  7.4702817e-01
 -9.7774267e-01  3.0019441e-01  1.1134524e+00 -2.1243844e+00
 -3.1558546e-01 -2.1401031e+00 -3.4600005e-01  1.2707905e+00]
[-0.03170206 -0.35718405  0.24831219 -0.21233258  0.00390081 -0.01044832
  0.02268359  0.07938605 -0.055841    0.09326243 -0.09325553 -0.04928022
 -0.2728274  -0.0588052  -0.18318327  0.26429248 -0.8581539  -0.04679601
 -0.62385696  0.2307731  -0.09174116 -0.1507699   0.56865376 -0.28366703
 -0.09713729  0.18638173  0.22985262 -0.16352847  0.1546646  -0.24159165
 -0.3678479  -0.12586157]
[ 1.80170640e-01  3.72433752e-01 -1.32211088e-03 -1.88962057e-01
  1.25665560e-01 -1.10271856e-01 -5.23487031e-01 -4.43678945e-01
  4.60948318e-01  5.62808029e-02  5.62477827e-01  9.84660387e-02
 -1.00386404e-01  6.79070532e-01 -1.40016928e-01  1.33319092e+00
  3.35731447e-01 -5.21169510e-03 -8.33574980e-02  1.11425057e-01
 -2.23492831e-03 -6.11585602e-02 -6.63224533e-02  7.31112182e-01
 -1.94988564e-01  1.29107118e-01  6.36871934e-01 -2.07143426e-01
 -4.64512318e-01  5.31495750e-01 -1.23060286e-01  1.82552874e-01]
[-0.06709042  0.23123978  0.17820325 -0.16956125 -0.32227352 -0.21205877
 -0.5647651  -0.14183345  0.05047327  0.21857014  0.19689704 -0.00860537
 -0.19338074  0.23220003 -0.2778261   0.44379842  0.2066525   0.04180032
  0.09390245  0.20244221 -0.03596359 -0.26899776  0.02239586  0.12583551
 -0.12117197  0.06550688  0.50190043 -0.39363998  0.12855245 -0.22842792
 -0.1912641  -0.11078286]
[-0.17731172 -0.231141   -0.13568912 -0.21604663  0.1450477  -0.00290048
  0.27115738  0.00408021  0.12362697  0.08137518  0.11862335 -0.09711381
 -0.06408051  0.17645021 -0.1423207  -0.10646885  0.24797817  0.03538445
  0.23789504  0.1427384  -0.09868395 -0.22398138  0.0610873   0.0467115
 -0.30130038 -0.0119679   0.13817285  0.11678189  0.2845256  -0.0794862
 -0.20430572  0.02493915]
[-0.18456112  0.00501932  0.2386024  -0.1952073  -0.26176098 -0.1558975
 -0.10497319 -0.00617367  0.07442612  0.17686984 -0.02129493 -0.08225748
 -0.15617968  0.12132693 -0.2006466   0.12648988 -0.02542788 -0.03633099
  0.02973852  0.09044033  0.01396746 -0.17316893  0.15448835 -0.0850464
 -0.19985665  0.05976781 -0.13506867 -0.6478307  -0.01336049 -0.23940133
 -0.0194034  -0.32754207]
[-0.10540944 -0.16811477 -0.1489818  -0.03862208 -0.20713949  0.00384694
 -0.5159242   1.3841399  -0.05732445 -0.28585455 -0.18494967 -0.6277105
  0.19207808  0.39997283 -0.13638622  0.45237163 -0.13935861  0.04754339
  0.21102871  0.06171262  0.01466505 -0.14177111 -0.6764961  -0.12938143
 -0.04728081 -0.28916842  0.11703116  0.89745975  0.33882552  0.1127997
  0.02375751 -0.17914769]
[-0.10446809 -0.01029301  0.5699909  -0.02591801  0.30101383 -0.00214049
 -0.08262017 -0.04891333 -0.14261416  0.08290426 -0.11759903  0.02890633
  0.11084529 -0.33870208  0.2022402  -0.25137234  0.06571189  0.02413042
 -0.2410407   0.1276174  -0.02480422  0.12993671 -0.3786716  -0.13417155
  0.2205772   0.11685471  0.06987926  0.03697822 -0.0832743  -0.10338231
  0.06965441 -0.27336824]
[ 0.35636202 -0.06702919 -0.08561335  0.14161782  0.11826169  0.20962715
 -0.16610645  0.1538902  -0.3534253  -0.02633705 -0.13534647  0.22362053
  0.2293052  -0.6831353   0.16848458 -0.13061681  0.16872928 -0.03379279
 -0.15953481 -0.13356848  0.3759766   0.19029017 -0.4534416  -0.00998604
  0.24826252 -0.24206205 -0.14248672  0.29404333 -0.08430171  0.40823445
  0.37939405  0.16713029]
[ 0.22320206  0.0114705   0.13893454  0.02854358 -0.84056     0.08281627
  0.15122421 -1.1389632  -0.41522208  0.03091746 -0.2557479  -0.34604466
  0.43268645 -0.5476154  -0.01016934 -0.18550178 -0.2708501  -0.02727706
 -0.34698248 -0.1837284  -0.2875883   0.14807537 -0.46919522  0.51104057
  0.45529687 -0.13658056 -0.21444285 -0.2877864   0.05097801 -0.06478403
  0.17490819  0.09980558]
[-0.07104088 -0.03121114  0.11540788  0.19270238 -0.1572141   0.14042039
 -0.47572744 -0.2326462  -0.09510294 -0.06306148  0.19859734 -1.9904463
 -0.04825188 -0.21722403  0.1135937  -0.08124503  0.02114904  0.00712897
 -0.07896445  0.18688548 -0.01233952  0.01476292 -0.9532065   0.01202765
 -0.14943579  0.07119484 -0.05346808  0.0121145  -0.06242093  0.151354
 -0.03341785  0.29540312]
[ 0.03177469  0.33251616  0.11993994  0.1593385   0.12746899  0.47191626
 -0.09301787  0.29985937  0.34970546  0.21172675  0.48144364 -0.946395
 -0.04953014  0.28807884  0.21900731  0.22686061 -0.0377398  -0.10007042
 -0.1323492  -0.02252706 -0.28626788  0.11419268  0.02005229  0.5523121
 -0.19780815 -0.20864747 -1.0850003   0.00475798 -0.66653323  0.0824746
 -0.37027913 -0.1969706 ]
[-1.1297915   0.26141202 -0.6663409  -1.0474453  -0.3354939  -0.23222883
 -0.558033    0.3134807  -0.9100671  -1.141066    0.5006644  -0.30718035
 -0.86911356 -0.07961918 -0.93710303  1.1480706  -0.34848154 -0.04259861
 -0.16528083 -0.5793365  -0.17484395 -1.412856   -0.5025306   1.2675495
 -0.62964004  0.30576748  0.22090486 -1.7016754  -0.9605203  -0.2798714
 -0.87495434 -1.3661017 ]
[ 0.0972501   0.00702168 -0.01413943  0.22389376  0.22091602  0.10807283
  0.25187945 -0.1648913  -0.09147488 -0.19793813 -0.2634418   0.08135616
  0.07407573 -0.11507515  0.09747158 -0.34332225 -0.04476137 -0.01593641
 -0.18727757  0.08072857  0.06669988  0.10431303  0.13113345 -0.15103547
  0.4996634   0.03448867  0.18441646  0.13321353  0.00952855  0.13377063
 -0.10955285 -0.1919002 ]
[-3.9685417e-02  3.2446668e-01 -2.3306766e-01  2.3372963e-03
 -4.4834569e-02 -1.0184493e-01 -5.6030059e-01 -1.5585914e-01
  3.3449748e-01  1.0390346e-01  1.0652622e-01  2.0161059e-01
 -3.8846232e-02  4.5268577e-01 -1.5839802e-01  7.6105434e-01
 -2.7382389e-02  2.7937017e-04 -6.9046520e-02  9.2456222e-02
  1.4158365e-01  2.6242202e-02 -3.6196840e-01  6.7594516e-01
 -1.2545605e-01  2.0248020e-02  4.1601780e-01  3.7577128e-01
 -3.0380398e-01 -3.6956117e-02 -5.8677662e-02 -3.0614638e-01]
[-2.3796096e-01  3.7476790e-01  1.3225088e-01 -3.3390346e-01
 -3.4331539e-01 -2.0973326e-01  1.7753856e+00  3.3652878e-01
  2.3776917e-01  8.2343817e-02  1.4766453e-02 -1.9250135e-01
 -2.0658651e-01  3.8583216e-01 -2.0485324e-01  8.9607743e-04
  2.2206850e-01 -1.6061503e-02  2.5297970e-01  2.4551217e-01
 -1.2082076e-01 -2.6548380e-01  1.0884702e-01  2.5094914e-01
 -4.0313110e-02  1.1040550e-02  5.9569490e-01 -8.7316799e-01
  2.3634209e-01 -6.9343604e-02 -1.0837947e-01 -1.5579872e-01]
[ 4.5260766e-01 -1.5929158e+00  7.9090250e-01 -8.5893679e-01
 -2.2048441e-01  3.3674662e-03  1.6388762e+00 -3.3844283e+00
  1.1059694e+00  2.5691102e+00  4.0316534e+00  3.6329882e+00
 -7.0070869e-01 -1.4610519e+00 -5.8055806e-01  8.1496620e-01
 -1.1048775e+00 -9.6720010e-03  2.1766602e-01  3.9872715e-01
 -7.4772221e-01 -1.0686291e+00 -5.2892723e+00  9.1927042e+00
 -2.6623776e+00 -8.7221712e-01  9.4950366e-01 -1.7346749e-01
 -9.6510839e+00 -2.9651278e-01 -9.7342634e-01 -2.7547703e+00]
[ 0.10064818 -0.35002643  0.1013231   0.42364573 -0.1880144  -0.2621045
 -0.06495894 -0.7507729  -0.17282069  0.1530483  -0.16260324 -0.365759
 -0.02650957 -0.36173403 -0.1112821  -0.4691011   0.3472492  -0.02798629
 -0.14392073 -0.09853565  0.12534349  0.29675898  0.19792154 -0.39292422
 -0.27635986  0.07187441  0.33795908 -0.26781848  0.38040575 -0.04926625
 -0.02366183 -0.17734972]
[ 0.04664111 -0.15471776 -0.12464809 -0.13456166  0.02086153 -0.1148426
 -0.04140125 -1.9771228  -0.26870912  0.04097604 -0.09152799 -0.12028988
 -0.08703322  0.1784746  -0.00973169  0.3890566  -0.3587313  -0.01400237
  0.24031013  0.10777075 -0.23882842 -0.05812782 -0.5016987  -0.20153214
 -0.08447     0.03442237 -0.21472475 -0.35560137  0.24194784 -0.24873945
 -0.11176932  0.19274174]
[ 0.08206974  0.11525963  0.02196099  0.04688932  0.19703947  0.0937379
 -0.35038427 -0.06513346  0.1894278  -0.02003511 -0.19971202  0.12438744
 -0.0932383   0.12150721  0.1124099  -0.04771088 -0.03218345  0.06789587
  0.10942634  0.06590635 -0.06948683  0.24111064  0.20879251  0.13656965
  0.06555196  0.14316995 -0.07522795  0.06947921  0.21253915  0.05348875
 -0.08949173  0.6215908 ]
[-0.14650662  0.20352499  0.09642354 -0.1753339  -0.3052991  -0.11483599
  0.15206677  0.00301477  0.25137663  0.22618549  0.2484991   0.0512695
 -0.06121266  0.18393013 -0.15060434  0.03264487  0.52395624 -0.04081868
  0.12213425  0.21807224 -0.19089071 -0.1745044   0.02569975  0.15040801
 -0.14390059  0.1137866   0.02472454 -0.5590913   0.32833117  0.02447685
 -0.19942166 -0.2974716 ]
[ 0.07361006  0.12913097 -0.20665255  0.01447586  0.28636     0.03114131
  0.35182947 -0.1309866  -0.24601015 -0.28636932  0.12218426  0.13999493
 -0.16955955 -0.02252569 -0.03688297 -0.46217263  0.00549102 -0.00197048
 -0.6306755  -0.01326824 -0.09526043 -0.09353019 -0.10932305  0.3625591
  0.96929747  0.07441325  0.73860234 -0.6373435   0.40931344  0.38021952
  0.18504816 -0.47976637]
[ 0.26135248  0.15301104 -0.21001403  0.1735195   0.14195232  0.19091721
 -0.09160553  0.08454274 -0.10058143 -0.15727046 -0.16284116  0.17591703
  0.26727623 -0.21896547  0.24183226 -0.27146345  0.01268299 -0.05508671
 -0.01528985 -0.03838417 -0.8647883   0.20584452  0.09042981  0.02726844
 -0.12601377 -0.05960662 -0.37432078  0.2810358  -0.22568789  0.37191847
 -0.01043407  0.31390536]
[-0.22301793 -0.13930127  0.08175392 -0.1245038   0.07338668 -0.10040098
  0.29005507 -0.08624389  0.3221226   0.35720327  0.29063264  0.07412114
 -0.26635328  0.35018885 -0.10727079 -0.03769724  0.3777223  -0.06979881
  0.2706335   0.3187821  -0.05815019 -0.23874862  0.0479145  -0.14637107
  0.02558288  0.02562229  0.3596031   0.10869649  0.4385367   0.04488626
 -0.2492523   0.056115  ]
[-0.22109284 -0.0348991   0.04525808 -0.15917723 -0.36319762 -0.07984085
 -0.39107952  0.17066513  0.11659414  0.1016297  -0.07178746 -0.09337007
 -0.1782674   0.15556161 -0.1718378   0.22412036 -0.16450454 -0.11315767
  0.12905705  0.13246442 -0.07691514 -0.0642149   0.21758562 -0.18619418
 -0.18562348  0.01311892 -0.8627543  -0.7330384   0.08876167 -0.251496
 -0.01870781 -0.39055687]
[-0.00220202  0.21330929  0.02973117  0.15849812  0.4814308   0.06082956
 -0.15368691  0.18833137  0.4479972  -0.16627806  0.13457467  0.2012321
  0.07179932 -0.25460464  0.19432987 -0.3016972   0.26765844 -0.0083825
 -0.13416526  0.04239194  0.11068046  0.09725982  0.9801901  -0.10809544
  0.19092509  0.2457287  -0.01496295  0.23348103 -0.3868171   0.00473399
  0.21264355 -0.07522027]
[ 0.23113099  0.05072854 -0.16859084  0.11430965  0.23474872  0.05902386
 -0.49988386  0.07398514  0.18828988 -0.2775564   0.07899112 -0.10516258
  0.16153175 -0.1077932   0.08553847  0.02042579 -0.1345988   0.01667618
  0.03315945 -0.0977323  -0.17584208  0.18375678 -0.14567412  0.14297509
 -0.07643671  0.0611827  -0.6564651   0.53823614 -0.07016837  0.11262985
 -0.02260049  0.4087041 ]
[ 0.14548218 -0.04720823  0.00197299  0.00243624  0.64625764  0.00456393
 -0.76635665 -0.75919014 -0.2238633  -0.23414505  0.38110662  0.05109439
  0.30170697 -0.4648703   0.0719619  -0.48231512  0.12756558 -0.12570922
  0.12793262 -0.16627406  0.15591466  0.15899836 -0.3902533   0.0234434
  0.44447178 -0.09629878 -0.6894347  -0.32953745 -0.25661105  0.11451423
 -0.6523086   0.3642951 ]
[-7.7549320e-01  3.6244208e-01 -1.7088881e-01  5.8761358e-01
  6.5342981e-01  1.0600222e-02  7.7647543e-01  7.4310493e-01
  1.5968113e-01 -8.6019687e-02 -2.8274113e-01 -5.6259060e-01
  7.0179425e-02 -1.8005548e-01  3.7794459e-01 -5.3634673e-01
  1.5403345e-01  1.6658796e-03 -1.0415075e+00 -2.5422573e-01
  2.1134159e-01 -5.9335869e-02  1.7828362e+00  4.7407404e-02
  3.6627448e-01 -3.1637332e-01  3.2048923e-01 -6.9200224e-01
  7.4813887e-02  3.6571901e-02  1.6269498e-01 -2.0830040e-01]
[ 0.08100252  0.01278223  0.01271046  0.20717378  0.2462409   0.17941716
 -0.18632111  0.05090728 -0.1289068  -0.15011732  0.01200534 -0.11509394
  0.14688301 -0.35393804  0.23317209 -0.23100206  0.03526681 -0.00056355
  0.05495156  0.08449397  0.30814153  0.10995783 -0.130681    0.21980874
  0.18199533  0.03703501 -0.17653824  0.16163494 -0.07073038  0.05085143
  0.26151025 -0.27849513]
[ 0.31571153 -0.0815498   0.5461485   0.18211722 -0.22770497 -0.0687236
 -0.13103633  0.9370235   0.44219348  0.44445738  0.44057783 -0.12409516
 -0.51398456  0.3750063   0.24227     0.77754545  0.08208887 -0.05081976
 -0.1493997  -0.05879628 -0.01007836 -0.18169715  0.66413486 -0.39015645
 -0.04868084 -0.07507074  0.02344061 -0.07992397 -0.679135   -0.09929609
 -0.20308952  0.16047451]
[ 0.34264615 -0.09313138 -0.2767434  -0.1071449  -0.5624223  -0.00680141
 -0.09609353 -0.22227326 -0.21898876 -0.04786083  0.24678618  0.4316377
  0.14385146  0.17810819 -0.04481987  0.22747007  0.00951415 -0.03155684
  0.01923539  0.12031699 -0.11281632  0.05474614 -0.86917245  0.08346223
 -0.22865397  0.43096694 -0.04900881  0.11771648 -0.140479   -0.09621328
  0.05467861 -0.18313001]
[-0.28336576  0.14568923 -0.09448769 -0.40067112 -0.47022292 -0.12048134
 -0.68359035 -0.1144566   0.1292728  -0.29581055  0.90223426 -0.0288451
 -0.10624716  0.509137   -0.16490756  0.08002401  0.3097159  -0.03942255
 -0.45807528  0.10920655 -0.09527209 -0.20961355 -0.05548241  0.42883897
 -0.376368    0.047498    0.9393332  -1.0283178  -0.05672774 -1.3712826
 -0.2832488  -1.0447608 ]
[-0.43714446  0.04957012 -0.11321475  0.16463919  0.45219618  0.13528502
  0.16325596 -0.36335394 -0.13585249  0.08712536 -0.29742518  0.11542473
 -0.1029222  -0.2077099   0.17438778  0.00318494  0.04777931 -0.08815982
  0.09824082 -0.34615493 -0.00456432  0.10026387 -0.381611    0.02065248
  0.02861783 -0.05780602  0.65113527  0.5918698  -0.06785396 -0.11605083
 -0.07894178 -0.20246057]
[-0.11968985 -0.12550561  0.3152792  -0.05764034  0.14764778  0.13275124
 -0.04748333  0.10729825  0.14050041 -0.0030385   0.33688822  0.02292445
 -0.16812377  0.29964495 -0.04631485  0.01469619 -0.18456437  0.03393056
 -0.10719819  0.13126825  0.33906755 -0.09777924  0.11783508 -0.19071604
  0.21880986 -0.02066162  0.16536243 -0.01447288 -0.02091507 -0.00772968
 -0.39409694 -0.04442653]
[-0.44738135 -0.09164421  0.50389755 -0.30314666 -0.09913496 -0.35494617
  0.13456176  0.21900156 -0.2576773   0.13977747 -0.04560526 -0.08960273
 -0.20130096  1.4602865  -0.3936593  -0.13163331 -0.6167329  -0.07654213
  0.5854916  -0.17487682 -0.13331318 -0.22715424 -0.36225903  0.1550674
 -0.14976747 -0.20996681  0.39610708 -0.26283374  0.28849605 -0.2300246
 -0.6369712  -0.11356442]
[ 0.15559317  0.03393797 -0.7261346   0.1036336   0.21899608  0.0661995
  0.30261728  0.25167364 -0.7059616   0.04358607  0.47854692  0.37717664
 -0.22792144 -0.7963225  -0.30854452  0.40285745 -1.4163151  -0.00377601
  0.79337275 -0.16190965 -0.46662962 -0.00836559  1.0449697  -0.45773464
 -0.15012552  0.52632123  0.3934209   0.04680159  0.10864742 -0.20688434
 -0.45223027  0.26166257]
[ 0.15902196 -0.07379355 -0.11622762  0.19048667  0.06575622  0.09900267
 -0.23020525 -0.26975688  0.08814336  0.11092845 -0.05934412 -0.24918664
  0.0214023  -0.26940957  0.08444332 -0.28374025  0.05731427  0.00542915
  0.11784563  0.07068558  0.1437537   0.10150838  0.08043821 -0.48747236
  0.32414198  0.01928937  0.01582325  0.27134344  0.01065909  0.01817458
  0.00487209  0.13518927]
[-0.23435448  0.2801864  -0.04986275 -0.10821746  0.21639685  0.11451765
  0.27436796 -0.13941199 -0.719328   -0.2457386  -0.62676823 -0.19330677
 -0.12870757 -0.48423323  0.04371557 -0.5401436  -0.14951907 -0.02819738
 -0.1292751  -0.16926757 -0.2587179   0.05060688 -0.9958989   0.49564484
  0.20194189 -0.13072501  0.03118403  0.6960952  -0.34890983 -0.14467351
 -0.04691519  0.25779432]
[-0.12429079  0.17172368  0.090192   -0.149646   -0.3016103  -0.25457403
 -0.42784047  0.0340186   0.12037571  0.11049183  0.04813195  0.07905685
 -0.15896939  0.3621449  -0.26429927 -0.04209538  0.16064936 -0.07566416
  0.06450728  0.15420626 -0.05728107 -0.21727654 -0.07936932 -0.06850544
 -0.16105023  0.1145267  -0.00392575  0.00501508  0.20117807 -0.0416866
 -0.12421503  0.20833066]
[ 0.16390288  0.05479757 -0.05123529  0.28388816 -0.43878394  0.39011207
  0.10721618  0.04020515 -0.42740858 -0.08027695 -0.34049138  0.07986917
  0.2819262  -0.70444006  0.43395072 -0.28295857 -0.30511576 -0.05453241
 -0.1778244  -0.24324273  0.19262844  0.2955318  -0.2675229   0.2787375
 -0.23447156 -0.21435308 -0.09181441  0.2344315  -0.25920427  0.09770058
  0.1787582   0.22186099]
[ 0.67026967  0.44341904  0.29269266  0.23341466  0.5418967  -1.0735142
 -0.16134223 -0.58285975 -1.174626   -0.50446105 -0.49877334 -0.09717849
  0.11747566 -1.5183016   0.31157416  0.47726667 -1.8763837  -0.08361133
 -0.46383682 -0.76814836 -0.69889694  0.10752297 -2.7314544   0.7268131
  0.73718065 -0.63732296  0.29542568 -0.92696154 -0.46339965 -1.3124782
  0.73984504  1.1685789 ]
[-0.23018417 -0.5239524  -0.04520037 -0.16925493 -0.31523022 -0.08315167
  0.17536514 -0.01738625  0.21665327  0.11902037  0.30408394 -0.00179584
 -0.05869687  0.03341299 -0.19169441 -0.15525417  0.30536348 -0.05234588
  0.20654142  0.11266828 -0.13856283 -0.19818242  0.04909963  0.03460967
 -0.20718676  0.0499497   0.04688983 -0.30132303  0.3138323  -0.07419904
 -0.27317002 -0.27063698]
[ 0.12320278 -0.36024606 -0.05738048  0.17946774 -0.36505875 -0.14453964
  0.04488292 -0.4287522   0.27270332 -0.09487455 -0.1213611   0.10863031
  0.18979062  0.3821263   0.16950175  0.24560389 -0.28845617 -0.03430241
 -0.16371073  0.10473742 -0.35291207  0.20147227 -0.2540328   0.46627167
 -0.1906536   0.09015878  0.10243559 -0.02465671 -0.0105847   0.12552041
  0.00597663  0.02179222]
[ 0.2222038   0.08514461 -0.01652036  0.0927341   0.21848814  0.06262296
  0.59735787 -0.06097051 -0.0507507  -0.05196378 -0.4413533  -0.09920879
  0.12114348 -0.25944456  0.09452622 -0.5796799   0.3827228  -0.00175615
 -0.02985039  0.19006814  0.11966117  0.14057441 -0.16912909 -0.05490672
  0.5163009   0.01671366 -0.01470325  0.10790831 -0.02103392  0.25965682
  0.15701754  0.0976675 ]
[-0.2678497   0.10889178 -0.05296837 -0.11923186 -0.36168945 -0.16789098
  0.51370776  0.16095304  0.2711587   0.00427799  0.09324912 -0.09038724
 -0.04651061  0.37998077 -0.18653874  0.23036645  0.1415718  -0.03262197
  0.00168464  0.19111238 -0.06348593 -0.18708307 -0.1537134   0.02436689
 -0.19786735  0.08683451 -0.02235876 -0.46619686  0.14553979 -0.35273328
 -0.10142131 -0.07075046]
[-0.28282517  0.13813265  0.230401   -0.23085488 -0.21755491 -0.21012187
 -0.06910101 -0.3031504   0.18037833  0.17481627  0.41145387 -0.06003915
 -0.3718276  -0.7234755  -0.22719371  0.8469409   0.7393937  -0.0230105
 -1.6044775   0.1323275  -0.02037576 -0.20191158  0.12910596 -0.07635617
 -0.11509602  0.10871667  0.37023148 -0.31402707 -0.05168912 -0.1973531
 -0.17021644 -0.05604451]
[ 0.12859882 -0.28566772 -0.12933081  0.14157009 -0.3561095   0.2489313
 -0.03394746 -0.101276   -0.0482521   0.06721184 -0.13352399  0.10916013
  0.08940873 -0.12429164  0.14922221 -0.2613357  -0.43858337 -0.03699655
  0.06319313 -0.04498711  0.02567577  0.12543835 -0.00342607 -0.5219011
 -0.17332973 -0.07816931 -0.5878109  -0.22281575  0.05048955  0.07005792
  0.16199844 -0.4009435 ]
layer 3 Activation
relu
layer 4 Dense
32 16
[-0.5851827   0.13166802  0.18616734 -0.37345722 -0.12275102  0.14289764
  0.12023249  0.04640219 -0.29175547 -0.01877259  0.6987145   0.03944194
 -0.01955505  0.24249113 -0.26241824 -0.04036803]
[-0.03964667 -0.10608006 -0.23918511  0.16364431 -0.01917916  0.1410933
 -0.10368471  0.17643262 -0.73772144 -0.07614551  0.04278836 -0.05717845
 -0.10294724  0.08364269 -0.2835605  -0.11864303]
[ 0.07687439 -0.12470261 -0.07764238 -0.4374374   0.05932875  0.12620896
  0.06481542 -0.11283672 -0.17891257  0.06111104  0.13494308 -0.13136569
 -0.05251025 -0.02307333  0.07019217 -0.08414619]
[ 0.28150815 -0.00633419  0.00472875 -0.02030226  0.04509028 -0.00889391
  0.04404601  0.08032592  0.02478304  0.02639723 -0.9435803   0.16832621
 -0.03489124  0.11891478 -0.15315641  0.10499816]
[-0.1726404   0.13957265  0.23289482  0.25368264 -0.3960516   0.03086645
  0.10685602  0.00571313 -0.0284916   0.09058571  0.06765817  0.04663044
 -0.00860542  0.10341403  0.39247105 -0.02591407]
[-4.7563331e-04  1.2173831e-01  1.6581795e-01 -5.8465099e-01
  2.8866552e-02 -2.4697421e-02  1.4801827e-01 -5.2150309e-02
  5.4184090e-02  5.4076370e-02 -1.3551286e-01  1.7026134e-01
 -2.9943915e-02  7.3514059e-02  1.4795752e-01  8.7248631e-02]
[-0.08679511 -0.01844994 -0.12334445  0.39283982  0.08951737  0.2654543
 -0.06099117  0.03405145 -0.11293707  0.1131678  -0.07501128 -0.06745787
 -0.06727228 -0.16311087 -0.31134737 -0.04959678]
[ 0.30604213  0.25297657  0.2482059   0.3316984   0.00505616 -0.4536686
  0.04486683 -0.0269676   0.2580006  -0.09931068  0.02900841  0.17719297
 -0.05062247 -0.07349497 -0.14866395  0.09908075]
[ 0.2927077   0.16892168  0.23256329  0.47175017  0.27367315  0.14777137
 -0.1381935   0.07640899  0.67487544  0.00262565 -0.6104837  -0.01803141
 -0.0191616  -0.17111489 -0.9247646  -0.07200896]
[ 0.08844087 -0.13834864 -0.1366319  -0.239613    0.08086375 -0.03701446
 -0.05283443  0.11869733  0.1584232   0.033995   -0.13995029 -0.11867018
 -0.03375904  0.00727748 -0.22197269 -0.05710986]
[ 0.07974842 -0.02882136  0.24754041  0.13756083  0.02948826  0.20534776
 -0.08269879  0.06094829  0.7073945   0.13013989  0.04120804 -0.05849119
 -0.06372321 -0.08307557 -0.4797572  -0.20790346]
[ 0.32904708 -0.00986345 -0.06434155  0.05216074 -0.06234476 -0.13160618
  0.08057451  0.13992822  0.09481294  0.03470765 -1.0556798   0.11485092
  0.00445465  0.03328935  0.37882724  0.20262636]
[-0.08341527  0.03584626  0.00378964 -1.0553854  -0.02248129 -0.1190296
  0.15300123 -0.01250547  0.01695623  0.07225551  0.04035607  0.05283741
 -0.11846375 -0.05358902 -0.26737213 -0.00810904]
[ 2.8912716e-02  2.6783192e-01 -4.2400375e-01  8.4853044e-04
 -2.0973499e-01  5.7857037e-02  2.2042669e-01  8.3122498e-01
 -1.1524310e+00  1.2298025e-01  5.2222058e-02 -1.2894654e-01
 -5.1972203e-02  8.5431613e-02 -3.8997203e-01  1.9268046e-01]
[ 0.1994268   0.12150189  0.12482643  0.61900973  0.1325123  -0.06063674
  0.2473459   0.02443806  0.07361156  0.24186674 -0.10424779  0.06850917
  0.02365111  0.16994578 -0.07789376  0.18037732]
[-0.10550181 -0.11358737  0.5755578   0.09901955  0.13250624  0.07339776
  0.22706978  0.3846551  -0.7829133  -0.1192585  -0.5456823   0.1390739
  0.02503925  0.17813356 -0.70945066  0.0665335 ]
[-0.43249682  0.13523388  0.48505357  0.71941847  0.04928582  0.00858786
 -0.16025457  0.5924314   1.0056978  -0.02352006 -0.05726134 -0.20050669
 -0.1055284   0.10588462 -1.8505075  -1.8846161 ]
[-0.04095113 -0.04763042  0.06135187 -0.02957176  0.08628852  0.03281666
 -0.02930213 -0.04854995  0.02599078  0.06226286  0.01369115  0.06942054
 -0.02131407  0.05556204  0.05076757 -0.02802817]
[-0.1056868  -0.0707457   0.05862991  0.34073952  0.0743642   0.08777664
 -0.09710211  0.0254339  -0.40641952 -0.0240069  -0.00380547  0.03263223
 -0.03236149  0.00453689 -0.58358425 -0.11988526]
[-0.04123892 -0.12389813 -0.08632538  0.00123664  0.01092496 -0.04181992
 -0.17605703  0.00062677 -0.21147941 -0.03323176 -0.1545345  -0.06101719
 -0.0212899  -0.0909266  -0.17648692 -0.0425215 ]
[-0.04304986  0.11290381  0.01721135 -0.02399436 -0.09801298  0.03716472
  0.11457725 -0.02799011 -0.00295488  0.04783437 -0.03015715  0.15594918
 -0.00252737  0.07544801 -0.02458631  0.14625092]
[ 0.02360504  0.19267452  0.04133812  0.08471949  0.06459582 -0.23739956
  0.16287294 -0.00759531 -0.13203986  0.13444428  0.20807101  0.10231117
  0.00109227  0.04440481 -0.14355476 -0.03125028]
[ 0.38006362 -0.2373907  -0.6878916   0.38245904  0.693612   -0.10719341
 -0.47061676 -0.2410649   0.5566794   1.2413692  -0.07403515  0.31741473
 -0.03844314 -0.7915177  -0.20947514  0.12430219]
[ 0.0921928  -0.45491204 -0.25051516 -0.84247184 -0.2828466  -0.54257077
 -0.3678241  -1.0875431  -0.57347006 -0.24234775 -0.6591036  -0.35310727
 -0.0209882  -0.7037847  -0.1850495  -0.5390631 ]
[ 0.01856468  0.08748605  0.17162514 -0.02104608  0.14736626 -0.01853685
  0.07779884 -0.02891072 -0.00162928 -0.00247452 -0.2661447   0.1151822
 -0.04300342  0.08859732  0.22765107  0.12601872]
[ 0.04694239  0.02853914 -0.28897497 -0.09155614  0.08493461 -0.07742669
 -0.05351064  0.02236958 -0.584294   -0.09358422  0.01095725 -0.07619467
 -0.04951606 -0.03881962 -0.12432311 -0.1970505 ]
[-7.4252412e-02 -1.8555200e-01  2.8735673e-04  5.6422215e-02
 -6.2595047e-02 -2.8376341e-01 -2.7074489e-01 -3.4583524e-01
 -3.7237397e-01 -1.4297801e-01 -1.3945875e-01 -6.4326219e-02
 -2.8720774e-02 -2.1995828e-01 -3.6560309e-01 -5.8093839e-03]
[-0.53793925  0.20750552 -0.17670515  0.18895356  0.01219602  0.13631241
  0.09347975  0.12300052  0.7242867   0.0492738  -0.10316888 -0.05455657
 -0.06680319  0.22897162  0.6815786   0.15058489]
[ 0.12772146 -0.04383367  0.02464877  0.2202263  -0.00579977 -0.0042742
 -0.1671668  -0.21082927 -0.52384573 -0.02245888 -0.14863658 -0.06404692
 -0.03255874 -0.24346244 -0.14580908  0.00202092]
[ 0.13456859  0.07929281  0.11364319 -0.05395975 -0.04693237  0.3983439
  0.11430264 -0.00335384  0.19368435 -0.02426524  0.2648681   0.07055166
 -0.09378038  0.07519253 -0.1008641  -0.01639801]
[ 0.27970672  0.14897206 -0.29446366  0.11317459  0.07709572 -0.08882152
  0.18480004 -0.1015769  -0.1490483  -0.03373302 -0.58032066 -0.00127109
 -0.04940685  0.08654216 -0.00793805 -0.1770974 ]
[-0.3659756  -0.26261553  0.07972448 -0.0917877  -0.6694302  -0.05825652
  0.14678796 -0.05336486 -0.3785574  -0.04518253  0.27133465  0.3019675
  0.00438498  0.16837819  0.49784887  0.16733277]
[-0.1673762  -0.00485451 -0.14907834 -0.27153736 -0.09686243  0.07907956
  0.01433429  0.00665401 -0.21451963  0.04734159 -0.133877   -0.04871157
 -0.04354193  0.01542021 -0.45069063 -0.01380794]
layer 5 Activation
relu
layer 6 Dense
16 1
[-0.02124771]
[-0.03139496]
[-0.01441463]
[0.06389511]
[-0.01085095]
[0.01404442]
[-0.05347284]
[0.03294445]
[-0.03477718]
[-0.03225883]
[0.0669139]
[-0.03045262]
[0.01769787]
[-0.03468971]
[-0.02888346]
[-0.02120438]
[0.000105]
